SVM-light Version V6.20
0 # kernel type
3 # kernel parameter -d 
1 # kernel parameter -g 
1 # kernel parameter -s 
1 # kernel parameter -r 
empty# kernel parameter -u 
28 # highest feature index 
135 # number of training documents 
2 # number of support vectors plus 1 
0 # threshold b, each following line is a SV (starting with alpha*y)
1 1:0.097728051 2:-0.15566553 3:0.018443605 4:0.12688582 5:-0.45442891 6:0.30007055 7:0.0082341414 8:0.005958878 9:0.0067327134 10:-0.032296441 11:0.17274855 12:0.0018283115 13:0.0075235651 14:0.0017585248 15:-0.026674358 16:0.19288835 17:-0.025851224 18:-0.029460996 19:-0.02185723 20:0.60103834 21:0.074154831 22:0.03924695 23:-0.029090384 24:0.03172138 25:0.53687596 26:-0.073256306 27:0.049996592 #
